%YAML:1.0
---
car_detection: !!opencv-object-detector-hog
   winSize: [ 64, 64 ]
   blockSize: [ 16, 16 ]
   blockStride: [ 8, 8 ]
   cellSize: [ 8, 8 ]
   nbins: 9
   derivAperture: 1
   winSigma: 4.
   histogramNormType: 0
   L2HysThreshold: 2.0000000000000001e-01
   gammaCorrection: 1
   nlevels: 64
   signedGradient: 0
   SVMDetector: [ 1.61947999e-02, 9.11522657e-03, -8.37076921e-03,
       -1.49438577e-02, 2.61454866e-03, -2.36966852e-02, -8.88564344e-03,
       -1.67102944e-02, -6.17413316e-03, -2.86769681e-03, 4.68157837e-03,
       8.78141786e-04, -1.03365805e-03, 2.52812239e-03, 4.79940837e-03,
       7.76505936e-03, -9.53461416e-03, -3.55500332e-03, 3.29774804e-03,
       -2.41346797e-03, 3.24212499e-02, 4.85741906e-03, 1.24686668e-02,
       6.64909231e-03, -1.99681558e-02, -9.38507449e-03, 4.33325593e-04,
       1.16637023e-02, 1.32773991e-03, 2.39428808e-03, -3.09938448e-03,
       -1.46384146e-02, 2.45770905e-02, -8.12979508e-03, -1.21723693e-02,
       -5.59029635e-03, 2.01993473e-02, 1.71700660e-02, -8.36146530e-03,
       4.04515257e-03, -1.63713489e-02, 9.94804502e-03, 6.58495445e-03,
       -5.96952019e-03, 4.26396774e-03, 1.03434836e-02, 1.34327030e-02,
       5.73739351e-04, 4.79165930e-03, -1.20581593e-02, 1.66932847e-02,
       5.11101866e-03, -2.13487148e-02, 4.45329060e-04, 1.19194621e-02,
       -1.56251155e-03, -2.55996420e-04, 1.21729430e-02, -6.09514676e-03,
       -1.00442453e-03, -1.08914170e-03, 2.57680728e-03, 3.14405817e-03,
       8.45885463e-03, 1.53849786e-02, 3.61885410e-03, 3.59623635e-04,
       -7.59727508e-03, 9.28658806e-03, -2.41423910e-03, 5.72729995e-03,
       -2.94551277e-03, 5.79664076e-04, 1.53600434e-02, 2.73049641e-02,
       2.78644846e-03, 7.66379340e-03, 3.29141039e-03, 1.25575671e-02,
       -6.51663495e-03, -1.05344038e-02, 1.66788343e-02, 1.06359264e-02,
       1.55424811e-02, 1.09922867e-02, -6.28824346e-03, -1.08705861e-02,
       -1.83782587e-03, -1.08104385e-02, -2.57572578e-03,
       -1.82518514e-03, 1.99818593e-02, 4.18546423e-03, -6.26631267e-03,
       -8.20059236e-03, -1.01860631e-02, -2.01427552e-04, 4.30050306e-03,
       -2.52291141e-03, -2.58887594e-04, 9.86576360e-03, 9.41606297e-04,
       1.77314579e-02, 5.37360378e-04, 1.51058817e-02, -1.10607725e-02,
       -3.29960557e-03, -3.06400616e-04, 3.02978586e-02, 2.36760974e-02,
       3.58001739e-02, 9.25782602e-03, 4.98530921e-03, -4.63970611e-03,
       2.10432010e-03, 2.21560225e-02, 1.11223254e-02, 1.77141111e-02,
       1.82319432e-02, 7.10430928e-03, -1.70076289e-03, 1.45509448e-02,
       7.62844877e-03, 2.21429579e-02, 2.06438061e-02, 1.51031250e-02,
       7.36538041e-03, 4.54439037e-03, 6.10667653e-03, 1.85830705e-02,
       1.62784792e-02, 1.02481963e-02, -8.91281851e-03, -1.34312622e-02,
       -3.95253953e-03, -2.26152241e-02, -4.66215750e-03,
       -2.25927569e-02, 2.51390077e-02, 9.48871952e-03, 1.75487828e-02,
       3.95853259e-03, -9.31665860e-03, 4.55965661e-03, 3.13379504e-02,
       2.53972802e-02, 6.77746534e-03, -1.81855052e-03, -7.38193188e-03,
       5.54307830e-03, 1.34900426e-02, 1.32979574e-02, -6.42684638e-04,
       3.97842824e-02, 2.18722541e-02, 1.41849183e-03, 1.26832956e-03,
       -1.49303041e-02, 2.12569349e-03, 1.68463346e-02, 2.15759277e-02,
       1.44499829e-02, 1.51184830e-03, 7.47822272e-03, -8.33444856e-03,
       2.12602993e-03, 1.49076618e-02, 2.06887219e-02, -1.13620320e-02,
       -2.67982879e-03, -8.95260833e-03, 7.03014573e-03, 3.98141885e-04,
       -9.92219336e-03, 1.29153933e-02, -1.74900927e-02, -3.69033101e-03,
       -1.73585787e-02, -1.58428177e-02, -1.12388711e-02, 9.67110414e-03,
       -5.84691996e-03, -6.14288438e-04, 1.02026062e-02, -1.48380604e-02,
       3.30136865e-02, 1.67658124e-02, 3.64962663e-03, -1.30273378e-03,
       2.17614826e-02, 5.69604337e-04, -6.61783712e-03, -3.65380757e-03,
       7.50075420e-03, 8.54955614e-03, 4.66839876e-03, -1.46927843e-02,
       -1.61127525e-03, -1.49302725e-02, -2.51262356e-03,
       -2.92858551e-03, -1.58733327e-03, 5.89329796e-03, 2.34595817e-02,
       1.88261960e-02, -7.09117251e-03, -2.34312867e-03, 1.17190089e-03,
       7.12550944e-03, -1.41018694e-02, 9.50953178e-03, 4.00721841e-03,
       7.71785993e-03, 1.45219360e-03, -1.62519626e-02, -9.53152589e-03,
       1.14695039e-02, -2.21022498e-02, 1.50465383e-03, -1.58905648e-02,
       -5.24732657e-03, 1.29813398e-03, 2.03200225e-02, 9.21920146e-05,
       3.19361966e-03, 1.12863909e-02, -1.77625648e-03, -5.61271375e-03,
       -8.66366364e-03, -1.24598527e-02, 1.42561868e-02, 6.11107424e-03,
       -3.65827233e-03, -7.78625981e-05, 1.48859136e-02, 5.19635947e-03,
       1.00063737e-02, 1.53474044e-02, 4.63595527e-04, 7.69489398e-03,
       8.32990929e-03, 5.12550818e-03, -1.50673566e-02, 1.52799918e-03,
       2.69396114e-04, -1.88452576e-03, 2.77307462e-02, -5.24092373e-03,
       -8.95081367e-03, -6.43211184e-03, 1.20339906e-02, -9.29123536e-03,
       1.98762659e-02, -1.91740936e-03, 1.55464113e-02, 4.06844402e-03,
       -6.95181545e-03, -7.00715929e-03, -6.33555744e-03,
       -8.60419963e-03, 1.34636927e-02, -4.19715792e-03, 1.14695420e-02,
       5.55783976e-03, -2.02406514e-02, -1.77896861e-03, -4.59836423e-03,
       -9.23858397e-03, -5.51551441e-03, -7.58250291e-03, 1.29701209e-03,
       9.35303140e-03, 7.19439238e-03, 1.46053620e-02, 5.96910436e-03,
       1.66364964e-02, -8.81814398e-03, -2.24816017e-02, -5.31446701e-03,
       5.17158955e-03, 1.08758667e-02, 6.09652698e-03, -2.04238080e-04,
       -2.41645239e-03, -9.88167711e-04, -1.17663760e-02, 2.96607590e-03,
       1.68644395e-02, 1.57574601e-02, 8.78200214e-03, -4.02014283e-03,
       4.83973185e-03, 1.27939573e-02, -3.56777036e-03, -1.23870755e-02,
       -1.65071618e-02, -1.39947124e-02, 1.36829466e-02, 2.13049408e-02,
       2.77459179e-03, 1.20715108e-02, -5.08001214e-03, 2.29762495e-03,
       -1.34709282e-02, -1.80946905e-02, -1.19367633e-02, 2.59275804e-03,
       2.37138267e-03, -2.47050123e-03, 1.31021123e-02, 1.05151087e-02,
       1.26307113e-02, -4.93528321e-03, -2.90643563e-03, -1.16926339e-02,
       1.12955282e-02, 1.86404940e-02, -1.09543148e-02, 1.37920156e-02,
       -8.18847492e-03, 1.51384994e-02, -1.15873674e-02, -7.49337312e-04,
       9.29956045e-03, 1.41522419e-02, 1.04992799e-02, 1.71059929e-02,
       8.14396422e-03, 2.89655384e-03, 4.86320257e-03, 9.10979230e-03,
       -3.24688107e-03, -1.51506963e-03, -4.26522922e-03, 9.05833513e-05,
       9.72156972e-03, -5.02087502e-03, 2.59117968e-03, 1.65571161e-02,
       -5.96579770e-03, 8.06736643e-04, 6.84508821e-03, 1.05213532e-02,
       6.62403507e-03, 2.42315582e-03, 1.15193604e-02, 3.47053312e-04,
       1.85342901e-03, -4.92874114e-03, -9.36255138e-03, -6.93578098e-04,
       -1.02545246e-02, 5.60019072e-03, 2.37816758e-02, -2.32923776e-03,
       -1.70638447e-03, 7.52139697e-03, -1.34793147e-02, -8.52187816e-03,
       -7.91371055e-03, 1.75691582e-02, -2.58138054e-03, -6.73462451e-03,
       1.86646322e-03, 1.76410154e-02, -9.35498998e-03, 1.37284782e-03,
       -1.63742737e-03, 1.19788041e-02, 1.18323811e-03, 9.14511271e-03,
       -3.78481927e-03, 7.23455381e-03, 1.50724296e-02, -7.22807087e-03,
       4.24588053e-03, -7.60592613e-03, 5.29096322e-03, 2.72893235e-02,
       1.65216625e-02, -6.60391478e-03, -1.57835186e-02, -7.39336759e-03,
       -6.50059478e-03, 7.26920960e-04, -6.64045452e-04, -2.34528966e-02,
       -2.18831226e-02, -4.44621826e-03, -7.19063077e-03, 1.49772805e-03,
       -1.50593845e-02, 7.01715378e-03, 4.86890879e-03, 5.61978249e-03,
       -1.13110719e-02, 2.48516947e-02, 9.90246981e-03, 1.56023540e-03,
       -1.56977940e-02, 1.61455963e-02, -9.79520474e-03, 1.59866351e-03,
       5.20933932e-03, 1.58815291e-02, 4.66666976e-03, 1.43174091e-02,
       -1.27005847e-02, -6.51681144e-03, 5.15402015e-03, -1.57592911e-02,
       -4.45396779e-03, -2.15070997e-03, -1.04752872e-02,
       -7.45736714e-03, 2.21679290e-03, -6.76455558e-04, -3.60823190e-03,
       -3.49405617e-03, -1.67204905e-03, 6.14712061e-03, 4.16135835e-03,
       -1.96617022e-02, -1.38331139e-02, 6.22405671e-03, -1.73332673e-02,
       7.96797592e-03, -1.43856779e-02, -4.92575066e-03, -8.88028741e-03,
       -2.13008020e-02, 9.16878320e-03, 1.56118311e-02, 7.24897720e-03,
       5.52283542e-04, -7.69349001e-03, 6.95113139e-03, -8.66001565e-03,
       1.47164403e-03, -7.59480055e-04, 6.79440470e-03, 8.97978246e-03,
       -1.16746977e-03, -2.54944712e-03, -1.97750833e-02, 1.83910818e-03,
       -8.34678859e-03, -2.34612040e-02, -1.83210019e-02,
       -2.65042316e-02, 1.68046951e-02, 5.75925410e-03, -1.71233453e-02,
       1.87465101e-02, 3.38354055e-03, 1.00880070e-02, 2.14811601e-02,
       9.56359226e-03, 8.70969705e-03, -1.86177829e-04, -1.70374941e-02,
       -9.52991284e-03, 1.76833433e-04, -7.47731235e-03, -8.94466974e-03,
       -5.64770121e-03, -3.72435129e-03, -1.26181571e-02, 3.83713581e-02,
       1.16029512e-02, 1.98547565e-03, -1.15458330e-04, 1.05950935e-02,
       -8.49788450e-03, 9.56207514e-03, 1.01344718e-04, -2.88575143e-03,
       1.40364224e-03, 1.68303736e-02, -1.12527166e-03, -3.01841111e-03,
       2.26575918e-02, 8.32901057e-03, 4.08038264e-03, 1.04916627e-02,
       -9.61196609e-03, 2.43118443e-02, 2.13762280e-02, 1.35545852e-02,
       7.48896319e-03, 1.86657289e-03, 1.23315081e-02, 8.13979015e-04,
       9.34504904e-03, 4.26483946e-03, -1.92853585e-02, 1.94097105e-02,
       3.46589857e-03, 7.63705000e-03, -4.75095771e-03, 2.27862522e-02,
       -5.88234607e-03, 2.22425442e-03, -2.38606054e-02, 5.45553485e-05,
       -1.67492032e-02, -3.22962343e-03, 5.56235109e-03, 4.33431566e-03,
       4.17902088e-03, -6.05506729e-03, 5.86132985e-04, 5.90307917e-03,
       -3.18028429e-03, -4.22349619e-03, -2.65240250e-03, 1.52448029e-03,
       1.05475076e-02, -1.33514619e-02, -1.03122788e-02, -3.37166153e-03,
       7.33673573e-03, -6.95914356e-03, -1.24390684e-02, 2.47348496e-03,
       -1.37131969e-02, 1.28974551e-02, -9.33036581e-03, -1.14211151e-02,
       -1.26855057e-02, -1.24845759e-03, -2.40675654e-04, 2.33396944e-02,
       4.21250751e-03, 9.58358496e-03, -1.23153988e-03, 1.78492710e-03,
       6.07247814e-04, -4.57220804e-03, 7.48224324e-04, 3.08571290e-03,
       1.36712089e-03, -6.22437848e-03, -2.49309316e-02, -8.12519109e-04,
       -1.73328128e-02, -9.68978181e-03, -2.41713622e-03,
       -2.01207884e-02, 4.53085406e-03, 7.02916691e-03, -9.78147518e-03,
       -6.63136225e-03, 1.07438853e-02, 9.78622399e-03, -2.14963183e-02,
       4.94545139e-03, -1.27520999e-02, 1.02448731e-03, 1.27331968e-02,
       -7.82808848e-03, -6.25451514e-03, -2.33096958e-04,
       -1.46717560e-02, 7.82716612e-04, 4.42785909e-03, 1.83635601e-03,
       -1.42462598e-02, 5.51444246e-03, -9.72883659e-04, 5.29129803e-03,
       5.73534565e-03, 1.07506951e-02, -1.47877727e-02, -1.60643999e-02,
       2.49624881e-03, 1.20052909e-02, 9.04491171e-03, 1.14670964e-02,
       -1.18350016e-03, 1.24653326e-02, -3.25745158e-03, -8.05846602e-03,
       -7.22321309e-03, 6.65751239e-03, -1.74631586e-03, -9.54099000e-03,
       1.09629519e-02, -2.57168105e-03, 1.04689794e-02, 1.51950298e-02,
       -1.88381469e-03, -1.22727547e-03, 7.35415379e-03, -1.70416909e-03,
       1.13861347e-02, 1.09219626e-02, 1.18174674e-02, 7.89011549e-03,
       1.60544403e-02, -5.29546058e-04, 2.00847420e-03, 4.83915210e-03,
       8.74930434e-03, 1.69948358e-02, -1.42980064e-03, 1.29930042e-02,
       7.42061948e-03, 8.34586471e-03, -1.95218006e-03, -3.97146540e-03,
       -4.68000211e-03, 1.11051369e-02, -5.66260656e-04, 5.70669863e-03,
       -9.64650698e-03, 1.70791540e-02, 4.59049176e-03, -8.55032448e-03,
       -3.42775951e-03, 1.58309899e-02, 1.12170505e-03, -2.80587957e-03,
       4.97285742e-03, -1.19462224e-04, 2.80083399e-02, 1.05700204e-02,
       -7.20521063e-03, 1.07439095e-02, 1.09518813e-02, 6.18900638e-03,
       -9.26375389e-03, 3.27729358e-04, -8.42606276e-03, 6.95201859e-04,
       1.46296131e-03, -2.78759026e-03, 1.99081935e-03, 1.33149168e-02,
       -7.86046498e-03, 1.79900136e-03, -3.88579257e-03, 5.07689314e-03,
       -2.32024975e-02, 9.63195506e-03, -2.53841840e-03, 5.67157520e-03,
       -1.34364003e-02, -4.67518345e-04, 8.77769757e-03, 7.78181246e-03,
       -2.03276593e-02, 2.03630663e-02, 4.11322387e-03, -5.44570619e-03,
       2.84769461e-02, 1.16497111e-02, -4.06412035e-03, -9.58369765e-03,
       -1.22968527e-02, -1.18277073e-02, 2.40342803e-02, 3.96172516e-03,
       -1.71052180e-02, 4.57589701e-03, 4.36750893e-03, 3.00051807e-03,
       9.20111034e-03, -8.69821350e-04, -6.76658005e-03, -4.41339146e-03,
       -4.53039864e-03, 2.04291195e-03, -7.56907248e-05, -2.93301791e-03,
       -2.77739228e-03, -1.03718480e-02, -9.51937027e-03, 1.08410809e-02,
       6.53630821e-03, 1.03522278e-02, -1.49076115e-02, 8.78086407e-03,
       3.43812746e-04, 1.81079097e-02, -3.58169891e-05, -1.50795486e-02,
       -1.71533898e-02, 3.46725695e-02, -2.72735977e-03, 1.04368674e-02,
       1.29086953e-02, 6.44120388e-03, 6.92086341e-03, 1.53266368e-02,
       -1.06635690e-02, -6.47960929e-03, 1.39934744e-03, 1.31282695e-02,
       -7.54896505e-03, -9.98750422e-03, -2.81111035e-03, 9.27742757e-03,
       1.06009338e-02, 5.37352683e-03, -1.57142375e-02, -1.75308678e-02,
       1.51890116e-02, -1.67550764e-03, 2.75389366e-02, 1.55313546e-03,
       -2.56147888e-03, 7.12556625e-03, 1.09651238e-02, 1.80970225e-02,
       2.59733107e-03, 1.95029506e-03, -7.12048914e-03, 5.22976648e-03,
       -2.22969837e-02, 1.09241288e-02, 1.25748692e-02, -1.14175957e-02,
       -1.62833687e-02, 1.44718997e-02, 7.51951989e-03, -5.45889046e-03,
       1.34926883e-03, 5.89749485e-04, -1.01112202e-02, 1.27693173e-02,
       3.54648149e-03, -8.89003742e-03, 2.88108233e-02, -2.14984920e-02,
       -1.76869836e-02, 9.69242956e-03, -1.61967557e-02, 1.31686404e-02,
       -8.24476313e-03, -7.85088167e-03, -4.08533588e-03, 1.28850704e-02,
       1.25788106e-02, -7.72613753e-03, 4.07025887e-04, -6.15469040e-03,
       -9.59116872e-03, 5.80578111e-03, -3.23484764e-02, -9.96422023e-03,
       2.37000547e-03, 6.77722273e-03, -6.41085440e-03, 1.59662403e-02,
       -6.41681161e-03, -4.46573878e-03, 5.08538028e-03, -1.28727853e-02,
       4.79999417e-03, 2.82534305e-02, 5.64598991e-03, -2.02516036e-04,
       -1.35635417e-02, 5.61970100e-03, -8.65997979e-04, 1.83061603e-02,
       8.73548910e-03, 7.11956620e-03, 5.94957639e-03, -3.91346822e-03,
       1.03624128e-02, -4.55766357e-03, -3.37890862e-03, 1.23338373e-02,
       -1.23318029e-03, -1.18274875e-02, 2.04465631e-03, 1.00912387e-02,
       8.39371793e-03, -1.34337097e-02, 6.23530149e-03, -4.84310789e-03,
       -9.55507718e-03, -6.93028420e-03, 2.10067164e-02, 1.54948784e-02,
       -1.20022232e-02, 1.34175383e-02, -1.46750046e-03, 6.58341916e-03,
       -2.05129408e-03, 5.63103659e-03, 8.61814898e-03, -1.18314829e-02,
       7.42684724e-03, 2.81309374e-02, -1.59195648e-03, -7.49001093e-03,
       -5.86822687e-04, 8.85659922e-03, -3.44753801e-03, 1.21853861e-03,
       -1.25660002e-02, 1.36815533e-02, 2.54846700e-02, 5.38445311e-03,
       -1.60627048e-02, 3.59959988e-04, 4.29103588e-04, -6.54701842e-04,
       -3.87213868e-03, -1.37771033e-02, 8.11460521e-03, 8.08904972e-03,
       1.06056901e-02, -1.34979468e-02, -2.05279700e-03, -6.60117902e-03,
       3.89613048e-03, -8.14080611e-03, -3.13846804e-02, 6.85556279e-03,
       8.53883941e-03, 1.12122148e-02, -7.26547372e-03, 3.30587896e-03,
       -7.74928275e-03, 1.94245111e-02, 1.26319118e-02, 1.81483068e-02,
       9.13254218e-04, 4.38302755e-03, 1.51872996e-03, 5.57602989e-03,
       1.19754812e-02, 2.20750421e-02, 1.15643386e-02, 1.97365899e-02,
       5.05023589e-03, -4.04466037e-03, 1.87032372e-02, 1.05473408e-02,
       -1.25742937e-03, -1.16471974e-02, 1.10956458e-02, 8.51870049e-03,
       9.63165332e-03, -1.12575358e-02, 9.73089074e-04, 2.58141439e-02,
       8.03041924e-03, 1.24570085e-02, 7.11115403e-03, 2.22066436e-02,
       2.31838413e-03, -2.62886565e-03, -8.19740177e-04, 8.89363792e-03,
       6.39274577e-03, 1.20002916e-02, -9.81363747e-03, 1.23278247e-02,
       2.51393504e-02, 1.09930607e-02, 1.07456846e-02, 1.44970734e-02,
       1.10413916e-02, 1.03130387e-02, 9.34521481e-03, -4.12698416e-03,
       -1.28290979e-02, 1.24085704e-02, -4.03947802e-03, 4.28695045e-03,
       1.30665756e-03, 2.59301085e-02, -1.19869225e-02, 6.59524091e-03,
       -1.13206496e-02, 1.27105610e-02, -4.53551329e-04, 1.25639625e-02,
       -1.07237487e-03, 1.00358408e-02, 9.88864689e-04, 1.71012301e-02,
       1.67314149e-02, -3.90251917e-05, 6.62654033e-03, 1.69880390e-02,
       1.55369623e-03, 1.23675009e-02, -1.58813000e-02, 1.44738257e-02,
       -1.34821283e-02, 2.44021118e-02, 8.58558124e-05, 9.78632923e-03,
       -5.41242864e-03, -1.55393807e-02, 3.12417047e-03, -1.40176555e-02,
       -6.57868385e-03, 2.01282185e-02, -1.01544671e-02, -1.25375204e-02,
       7.90811889e-03, -9.95093770e-03, 1.60884354e-02, 1.36873871e-02,
       2.17470806e-04, 1.10672275e-02, 1.57351121e-02, -2.26662238e-03,
       -2.74097342e-02, 5.05162263e-03, 1.23168081e-02, -1.05634972e-03,
       1.47373136e-02, -7.40411645e-03, -3.63727915e-03, 3.27462185e-04,
       7.84984417e-03, -1.71682667e-02, 2.28763162e-03, -1.34757720e-02,
       2.42057838e-03, 6.01016078e-03, -9.69722401e-03, 9.12392419e-03,
       1.92383479e-03, 2.34113913e-02, -3.10843065e-03, 6.59986865e-03,
       9.25234053e-03, -1.42588262e-02, 1.47752778e-03, -7.64461700e-03,
       -1.58615131e-03, 3.68133672e-02, -2.49074143e-03, -1.61041263e-02,
       1.61813144e-02, -3.44790029e-03, -1.05742284e-03, -1.11630624e-02,
       -5.64656081e-03, 5.50140440e-03, 1.68060474e-02, 1.64644551e-02,
       -8.51317123e-03, 3.12753115e-03, 5.20079280e-04, -1.04056587e-02,
       4.03918419e-03, -5.65351639e-03, 1.37003008e-02, 2.32699290e-02,
       -5.86942630e-03, -7.48120574e-03, 3.84383905e-03, -8.74703191e-03,
       -1.65706500e-02, 8.11433978e-03, -6.10245625e-03, 8.13460723e-03,
       1.57519914e-02, 2.26132032e-02, 3.34186479e-04, -1.96715128e-02,
       1.42588047e-03, 2.51386948e-02, 9.92669910e-03, 1.64896529e-02,
       -1.32054333e-02, 2.36836057e-02, -3.60995391e-03, -7.99005211e-04,
       8.57973751e-03, 1.64854359e-02, -6.70775725e-03, 1.69683937e-02,
       -9.61552467e-03, -4.67777811e-03, 3.67792323e-02, -1.16729643e-03,
       -3.67968413e-03, 1.10205682e-02, -1.97639633e-02, 1.54304691e-03,
       1.65967513e-02, 1.23008871e-02, 2.23407778e-03, 2.00554077e-02,
       1.48179312e-03, 9.90608148e-03, 8.49123206e-03, 2.18454301e-02,
       -2.11229138e-02, -7.56898383e-03, -8.25234782e-03, 1.84153914e-02,
       1.75340362e-02, 2.16586925e-02, -1.50952190e-02, 1.65101700e-02,
       -1.17049720e-02, 4.94238222e-03, -1.00420415e-02, -2.85320915e-03,
       -3.73363000e-04, 2.02119052e-02, -3.24670784e-03, -3.02723539e-03,
       -2.20642537e-02, 1.05578474e-04, -9.95664275e-04, -5.00835478e-03,
       2.38288660e-02, 3.25521897e-03, 1.47104794e-02, -3.30276176e-04,
       6.48796745e-03, 4.16859426e-03, 6.51238393e-03, 1.00005884e-02,
       -1.09768808e-02, -6.07710378e-03, 1.35910488e-03, 1.31910518e-02,
       1.05802035e-02, -1.01647209e-02, -1.91447716e-02, -6.38791302e-04,
       -6.87091891e-03, -2.95333029e-03, -4.00512153e-03,
       -1.60509329e-02, -1.47582730e-02, 1.04775056e-02, -6.39133062e-03,
       -1.55183366e-02, -2.50012334e-03, -9.63220955e-04,
       -7.37472204e-03, 1.96761102e-03, -6.44707633e-03, 1.56028243e-02,
       -8.89818650e-03, -8.47764034e-03, 7.24591129e-03, 1.09472005e-02,
       -9.77491681e-03, -1.83765832e-02, -1.20528862e-02, 1.21989893e-02,
       -1.41960429e-03, -1.65076694e-03, -1.74282230e-02, 7.22673908e-03,
       -1.17648728e-02, -1.43922279e-02, -1.31758964e-02,
       -1.53028434e-02, -1.20294206e-02, -1.11193703e-02,
       -1.08958334e-02, -1.61373075e-02, -7.79348193e-03, 1.59749703e-03,
       -1.44130588e-02, 1.41108073e-02, -5.95368445e-03, 3.41228023e-03,
       -4.95731877e-03, -5.93208708e-03, -2.15616170e-03, 1.61676891e-02,
       1.30403123e-03, 1.32889273e-02, 9.74705443e-03, 4.65194788e-03,
       5.82786556e-03, 2.47549955e-02, 4.28633066e-03, 2.37737149e-02,
       9.24766529e-03, -4.48909169e-03, -2.01541069e-03, -1.09528992e-02,
       -1.27075836e-02, 1.18053295e-02, 2.70772576e-02, 1.56272221e-02,
       -8.00376874e-04, 3.20633897e-03, 4.71203076e-03, 6.05301838e-03,
       7.02603487e-03, 8.01110175e-03, -1.29888766e-02, 3.00599542e-03,
       6.57342048e-03, 2.20380127e-02, 2.95526022e-03, 1.06517319e-03,
       3.08589614e-03, -1.02370847e-02, 3.09894560e-03, 6.44004205e-03,
       4.91176033e-03, 1.16372285e-02, 5.17661497e-03, -2.87187356e-03,
       -3.32967122e-03, 8.90694186e-03, 1.83776184e-03, -5.67978248e-03,
       -5.63519541e-03, 1.11289136e-02, -1.74277499e-02, -8.56826548e-03,
       -4.60495334e-03, 1.04823364e-02, -3.52706207e-04, 7.42463442e-03,
       -1.34521471e-02, -7.27417506e-03, 5.82815846e-04, -4.17514145e-03,
       1.27426293e-02, 2.88698659e-03, -6.19696919e-03, 1.27789052e-03,
       -1.12585425e-02, -7.99270906e-03, 1.60969123e-02, 2.13217735e-02,
       -4.37420001e-03, 8.88021011e-03, 3.98573745e-03, 1.21863913e-02,
       3.15323449e-03, 6.28052221e-04, -7.99683016e-03, 1.76156387e-02,
       3.42924544e-03, 7.31481845e-03, -5.09593030e-03, -5.18711936e-03,
       -1.23987896e-02, -9.22350271e-04, 9.31146182e-03, 9.30034090e-03,
       -2.02016835e-03, 1.23310955e-02, -8.62015504e-03, -5.17638260e-03,
       1.94637571e-02, -5.02638286e-04, -1.28529314e-03, 1.10025518e-02,
       -2.46055075e-03, -2.88065081e-03, 2.72528678e-02, -6.29063882e-03,
       -9.41445213e-03, 5.62984217e-03, -6.36897050e-03, 1.21252062e-02,
       1.85591616e-02, -1.05263060e-02, 7.62862759e-03, 1.44166099e-02,
       -1.44792926e-02, -1.40818348e-02, -8.04311037e-03, 8.19935277e-03,
       -5.34446957e-03, -4.26173955e-03, -1.66625753e-02, 1.24874096e-02,
       -3.26791103e-03, -1.03607848e-02, -1.56481117e-02,
       -1.67674676e-03, -1.78516656e-02, 1.06623052e-02, 1.42630925e-02,
       4.33479575e-03, -1.02277100e-03, -5.59074862e-04, -2.45566089e-02,
       -1.19180903e-02, 4.61755646e-03, 7.40054762e-03, -1.03909736e-02,
       8.95914622e-03, 6.89486880e-03, 4.64465516e-03, 1.52234966e-02,
       1.63366999e-02, 2.99825007e-03, 5.87357383e-04, -2.34204251e-03,
       2.50944402e-03, 1.21499905e-02, 1.17449397e-02, -3.00026702e-04,
       1.94000658e-02, -1.99317988e-02, -1.25684654e-02, 6.22192165e-04,
       1.98346493e-03, 9.94913047e-04, 5.71488403e-04, -1.80149975e-03,
       1.50583480e-02, -1.01052085e-02, -2.26346674e-04, -1.19794672e-02,
       1.25402818e-04, 1.62798550e-03, -8.85496847e-03, 6.05498115e-03,
       -2.35528173e-03, -4.39479109e-03, 1.86867975e-02, -4.28207172e-03,
       -1.16697103e-02, -5.08693466e-03, 1.36750368e-02, -1.75723899e-02,
       -6.25689048e-03, -1.44876912e-02, -1.48303686e-02, 3.25087644e-02,
       -7.22836470e-03, -2.75662579e-02, 1.09350542e-02, -6.33645849e-03,
       -1.72104512e-03, 6.43356424e-03, -1.59092445e-03, 5.62930899e-03,
       2.78208201e-04, 1.35134312e-03, 1.70546733e-02, 2.22745836e-02,
       1.01992674e-02, -2.14270726e-02, 2.70299701e-04, -1.98978446e-02,
       -1.98534820e-02, 2.23672315e-02, 4.39351983e-03, -4.38841991e-03,
       2.69048964e-03, -8.72292183e-03, 3.58204031e-03, -8.53717234e-03,
       7.55581958e-03, -1.96235906e-03, 6.28204225e-03, 7.03846896e-03,
       1.29559115e-02, -3.60655831e-04, 7.31391646e-03, 9.66366846e-03,
       9.61356889e-03, -8.35955841e-04, -6.16955524e-03, 1.12822456e-02,
       5.23654104e-04, 1.68221202e-02, -2.08559167e-03, 7.52656721e-03,
       1.14622656e-02, -6.75273873e-03, -8.80981330e-03, -1.44982245e-02,
       -6.20543258e-03, 1.13412912e-03, 7.84847327e-03, -6.43503107e-03,
       7.49847619e-03, -5.68662398e-03, 6.98360708e-03, -7.18190754e-03,
       4.01764596e-03, -1.25505627e-04, -9.00716428e-03, 5.12294890e-03,
       6.42187754e-03, -2.55620317e-03, -1.75489839e-02, -7.79940456e-04,
       -9.92781669e-03, 7.30602723e-03, 1.80329252e-02, 1.29084121e-02,
       2.15870983e-04, 7.82724377e-03, -3.30138369e-03, -2.08909251e-03,
       -4.04917449e-03, -5.50735742e-03, 1.05484650e-02, 4.49952390e-03,
       8.77548382e-03, -9.51365475e-03, 8.35115742e-03, 4.44337213e-03,
       -1.22652790e-02, -1.63067766e-02, -2.65195947e-02, 3.38989357e-03,
       1.96754956e-03, 3.77779850e-03, 3.16925836e-03, -3.11609404e-03,
       1.61534976e-02, -1.96303963e-03, -5.31000178e-03, -1.77235827e-02,
       1.97898112e-02, 9.41829011e-03, 1.83549765e-02, 4.81792353e-03,
       9.08228103e-03, 2.06502248e-02, -4.71983990e-03, -4.47230600e-03,
       5.18680830e-03, 3.51314503e-03, 7.40102609e-04, -1.60441385e-03,
       2.95301341e-03, 1.39300211e-03, 1.70502607e-02, 9.81042045e-04,
       -9.67719301e-04, -5.04053198e-03, 1.25868861e-02, 1.63009856e-02,
       6.53658481e-03, 2.61199661e-02, 5.56833670e-03, -3.85656417e-03,
       -6.32926542e-03, 3.49104265e-03, 1.23139247e-02, 2.13700859e-03,
       -8.70709075e-04, 1.08780712e-02, 1.44176632e-02, 1.70055740e-02,
       1.92346144e-02, -8.27430468e-03, 6.28746394e-03, -1.02059897e-02,
       2.34948583e-02, 1.01019489e-02, 1.08776102e-02, 1.11240521e-02,
       6.83716498e-03, -3.94369522e-03, -2.00214479e-02, -1.07288975e-02,
       -2.18082778e-03, -5.40020224e-03, 7.83046987e-03, -1.67370238e-03,
       -9.03780165e-04, 1.17607350e-02, 5.05691068e-03, -1.40745714e-02,
       -6.31319312e-03, 2.58211675e-03, 2.04667426e-03, -4.26155468e-03,
       -7.77142122e-04, -8.42701923e-03, -2.95054470e-03,
       -3.18849981e-02, 4.65011923e-03, -4.08913707e-03, -1.79773606e-02,
       -6.30549679e-04, 9.02517606e-03, 4.19480912e-03, 7.44300568e-03,
       5.76210767e-03, 1.71932802e-02, -1.09692970e-02, -6.02828711e-03,
       -6.22976571e-03, -3.49910930e-03, -1.32438121e-02, 1.66709498e-02,
       -1.21490452e-02, 1.87955808e-03, -3.08750966e-03, -1.81671344e-02,
       -2.57865712e-03, -7.39779149e-04, -3.50510050e-03, 1.05741303e-02,
       -8.06169957e-03, 9.20397975e-03, 1.61347557e-02, -5.57079446e-03,
       1.65526643e-02, -1.03875007e-02, -1.10492501e-02, 6.43684715e-03,
       5.30583179e-03, -1.12380264e-02, -1.59875471e-02, 6.42592879e-03,
       -5.10324398e-03, 1.10967318e-02, -1.01441878e-03, 5.20704687e-03,
       1.81876693e-03, 4.36772127e-03, 1.21040619e-03, -7.83510227e-03,
       7.48138735e-03, 1.56120183e-02, -4.25249850e-03, -1.26584917e-02,
       -2.25187447e-02, 4.78703016e-03, -5.85596543e-03, -3.00891395e-03,
       -1.26413079e-02, 1.01055047e-02, 1.68926641e-03, 8.52421764e-03,
       1.32063869e-02, 2.20345687e-02, -5.34682069e-03, 1.28750419e-02,
       1.28019741e-02, -1.57232955e-02, 6.81090984e-04, 1.24135744e-02,
       -7.63465976e-03, -2.20300052e-02, -1.01908827e-02,
       -5.28982328e-03, -8.85650108e-04, 1.42866769e-03, -1.29537424e-02,
       -2.38310676e-02, 1.02556404e-02, 5.46414824e-03, -4.15948872e-03,
       -1.70624373e-03, -1.41854712e-03, 1.09524708e-02, -3.19469627e-03,
       3.81571753e-03, 3.09066381e-03, 1.21603226e-02, -1.39165502e-02,
       -2.50482261e-02, -1.70083512e-02, 4.04755818e-03, 7.25089863e-04,
       -7.97622092e-03, -1.18737184e-02, -3.33750551e-03, 5.28292125e-03,
       4.11287602e-03, 9.67547484e-03, -1.99083961e-03, -3.11884517e-03,
       8.95846693e-04, -1.15523778e-03, 2.08960511e-02, 1.07383495e-02,
       2.13715825e-02, -2.53629163e-02, 7.73082627e-03, 1.23327374e-02,
       4.55009611e-03, 1.05894916e-02, 5.80641441e-03, 4.32477286e-03,
       1.24734547e-02, -1.43808583e-02, 1.26792540e-04, 3.23016965e-03,
       2.06166450e-02, 3.98637308e-03, 1.15022026e-02, -3.90468328e-03,
       8.02563597e-03, 2.82092905e-03, 2.41467301e-02, -4.66537522e-03,
       1.39713669e-02, -9.76069551e-03, 1.68625696e-03, 2.59831222e-03,
       2.43310281e-03, 1.20615736e-02, 8.66713002e-03, -2.28650658e-03,
       3.53234122e-04, -2.56713270e-03, -4.26188251e-03, -8.23066942e-03,
       1.77154411e-02, 3.19401664e-03, 2.84628440e-02, 1.34295784e-02,
       1.08525092e-02, -1.53361782e-02, -9.07146558e-03, 2.61629047e-03,
       1.27872070e-02, 1.22965034e-03, -4.38974099e-03, 1.19260689e-02,
       -5.12998737e-03, -1.25549780e-03, 8.67479201e-03, -9.76707879e-03,
       -3.64675210e-03, -2.21271012e-02, -2.06689704e-02,
       -1.69596523e-02, -5.45413420e-03, 1.18037807e-02, 3.62242721e-02,
       -2.18517948e-02, -1.00105070e-02, 7.32889865e-03, 1.38628371e-02,
       -2.90404074e-03, -4.18211054e-03, -2.80484348e-03, 7.34226080e-03,
       -1.76941138e-02, 6.29715621e-04, 3.33973952e-03, -1.61774375e-03,
       -4.85563464e-03, 2.20396346e-03, -3.10119824e-03, 1.39448298e-02,
       -3.26667423e-03, 9.90129355e-03, -5.06142806e-03, 1.29711889e-02,
       6.07531145e-03, 1.69721823e-02, 1.79523882e-02, -1.96338259e-03,
       1.42497011e-02, 2.48204563e-02, 1.17205502e-02, 5.87814068e-03,
       -6.75806496e-03, -6.55051728e-04, -6.68734219e-03,
       -1.68925747e-02, -3.95573722e-03, -1.99337397e-03, 6.44247653e-03,
       1.41933439e-02, -7.84487277e-03, -1.84795782e-02, -9.43008903e-03,
       1.94142275e-02, -3.80240870e-03, 5.29605080e-04, -9.56867635e-03,
       1.17610861e-02, -6.85651740e-03, 7.48500694e-04, 5.94788510e-03,
       3.25365784e-03, -1.38794081e-02, 9.24446713e-03, 2.72010569e-03,
       1.90050341e-02, 2.75609195e-02, 3.04824114e-03, -6.07716478e-03,
       -1.77182746e-03, 8.45976919e-03, 1.53102558e-02, 1.16235716e-02,
       2.11133324e-02, 1.01628089e-02, -1.76536106e-03, 3.45235225e-03,
       -4.21226537e-03, -1.29731195e-02, 9.54120513e-03, 2.78556347e-03,
       6.86511304e-03, 6.58921152e-03, 1.82585176e-02, 1.59532223e-02,
       4.51174518e-03, -8.46465304e-03, -2.52925120e-02, -3.73936514e-03,
       1.72890779e-02, -6.14400581e-03, -2.79703969e-03, 9.93195269e-03,
       1.10296020e-02, 8.86585750e-03, -9.25467163e-03, -4.04599076e-03,
       1.04860142e-02, 4.95159021e-03, 1.13204541e-02, 1.03257159e-02,
       2.26107240e-02, -3.30004041e-05, 3.97440512e-03, -5.31598786e-03,
       -4.97374590e-03, 1.15793496e-02, 4.67621256e-03, 1.19128572e-02,
       2.00335197e-02, -9.44020506e-03, -5.87573647e-03, -1.65731777e-02,
       3.00536398e-02, 1.75571609e-02, 4.66381432e-03, 6.53141737e-03,
       -3.34064272e-04, 1.04798190e-02, 3.31413113e-02, 3.31031159e-02,
       2.78211739e-02, 2.90216208e-02, 3.55678871e-02, 3.30332853e-02,
       7.52107101e-03, -1.17792096e-03, 6.67307712e-03, 2.90791341e-03,
       7.46017275e-03, 1.47163691e-02, -2.30621304e-02, 4.81554354e-03,
       1.10823391e-02, 1.82099100e-02, 5.86024532e-03, -1.17917499e-02,
       4.30911547e-03, 8.80073663e-03, 1.65075844e-03, -1.86830051e-02,
       -7.66028697e-03, 4.42017976e-04, -1.14032323e-03, -1.36644319e-02,
       -3.12907435e-03, -8.74098577e-03, 1.07674962e-02, 1.39524341e-02,
       5.76410734e-04, 2.76121162e-02, 1.60632133e-02, 1.10173570e-02,
       -8.35206546e-03, -2.79671676e-03, -8.20444524e-03, 1.59962345e-02,
       2.26655882e-02, 9.87856928e-03, 1.94392186e-02, 1.26226004e-02,
       5.60170924e-03, -8.50256358e-04, 1.71258077e-02, -1.91472378e-02,
       1.26294699e-02, 3.96310426e-02, -8.60012881e-03, -8.55656434e-03,
       1.53504163e-02, 2.76944600e-02, 3.75143206e-03, -2.77350331e-03,
       -5.29784383e-03, -1.38247351e-03, -1.11866109e-02,
       -2.19834186e-02, -1.43076899e-02, 1.05109643e-02, 5.23689296e-03,
       -5.50276553e-03, 9.74545907e-03, -3.56424577e-03, 1.76540203e-02,
       5.62514062e-04, -2.49424111e-03, -4.38888790e-03, 1.55700063e-02,
       2.52712704e-02, -1.91921387e-02, 1.09311147e-02, -8.85143038e-03,
       -7.07359333e-03, 8.26701242e-03, -3.36272456e-03, -2.15279330e-02,
       4.13485896e-03, 5.99760236e-03, -6.59348536e-03, -3.52436653e-03,
       8.35033786e-03, 3.23859230e-03, 1.82426646e-02, -6.20657392e-03,
       -2.18245503e-03, 5.69426874e-03, 9.93029308e-03, -2.26523867e-03,
       2.78031942e-03, 1.85510088e-02, 1.52157871e-02, 1.98064726e-02,
       -4.10024729e-03, 1.31439026e-02, -4.77968296e-03, -7.00921100e-03,
       1.06066568e-02, 1.20570920e-02, 5.23433974e-03, 8.19606241e-03,
       3.41519085e-03, 6.47149794e-03, -6.18808623e-03, 1.50992197e-03,
       8.26849020e-04, -1.11838132e-02, -9.27446131e-03, 2.04694681e-02,
       -3.36586568e-03, 6.69825356e-03, -1.36921611e-02, -1.35732498e-02,
       -6.88714581e-03, 1.36163458e-02, -2.42687128e-02, -1.17546516e-02,
       -3.99334310e-03, -4.87129949e-03, 5.85378474e-03, -6.14492953e-01 ]
